{
    "cipherTypeModel": {
        "classes": [
            "FRACTIONATING",
            "FRACTIONATING TRANSPOSITION",
            "MONOALPHABETIC_SUBSTITUTION",
            "POLYALPHABETIC_SUBSTITUTION",
            "POLYGRAPHIC_SUBSTITUTION",
            "STENOGRAPHIC",
            "TRANSPOSITION"
        ],
        "weights": [
            [
                -0.8220875168012929,
                -1.9655937978342501,
                2.660558035279806,
                -0.27503813704547553,
                -0.6875470683003194,
                -0.44400056350453787,
                -0.3786179320008289,
                -0.5003104486689355,
                -0.6938224774793281,
                -0.5218288602688564,
                -0.6060200746182138,
                -0.5436356236982202,
                -0.6586407406261621,
                -0.06184062362675468,
                -0.3862458290619289,
                -0.6090742776260553,
                -0.5826828152352003,
                -0.5381363752864791,
                -0.6489140809748066,
                -0.4076635210000164,
                -0.3292875873804701,
                -0.6540294327880974,
                -0.5858849021419148,
                -0.6184815973388617,
                -0.4329026088618769,
                -0.5567627068260748,
                -0.35487490309755637,
                -0.390216781428795,
                -0.33156741221749597,
                -0.4426210404507257,
                -0.08750320361266589,
                -1.0467612981024448,
                -9.591038109621847,
                10.78157562958934,
                15.152264867715427,
                -2.5112977683194795,
                -0.019763307482671594,
                -0.02586843498113825,
                -0.022565463327433182,
                -0.023714461575414278
            ],
            [
                3.956966938989316,
                -2.7784756520030895,
                0.11542622676643362,
                0.16672256508854608,
                6.501295568515577,
                -4.408730888319776,
                -2.283931508576199,
                8.444030221295606,
                -3.176698451191602,
                6.557186054111927,
                6.006570372846125,
                -2.7425956393440547,
                -3.0814582821402112,
                -0.08924823903485098,
                -2.308158532974568,
                -3.0388712489410086,
                -3.1300003925404836,
                -2.7573075530650177,
                -3.177833839328062,
                -2.60219753346568,
                -2.3439273276381347,
                -3.1025414873074553,
                -2.859179569447241,
                -3.1175789824291456,
                -2.481083055720222,
                2.6252944192990304,
                -1.6330361735981058,
                2.037233567705424,
                -1.7303294842271726,
                -2.128109138305403,
                -0.2820116014402932,
                8.73628996692574,
                15.646157560401043,
                -3.793968200376749,
                -6.730658953251418,
                6.572375861234224,
                -0.055593358468748424,
                -0.06569488535555792,
                -0.06737044115593581,
                -0.06893597852300484
            ],
            [
                34.930840328779325,
                2.594764254988409,
                1.4314944584159481,
                -0.3435645165125211,
                -17.451250842290076,
                -0.5129438069722272,
                1.198898272408541,
                -0.9100012838961904,
                -9.091757309382647,
                -3.3214696375140877,
                2.803499081272455,
                3.732259853629099,
                -1.167878606976477,
                4.653736146727754,
                2.687078238430415,
                2.7222780606776578,
                3.2279673178485133,
                -3.289068654844316,
                -2.115040133381964,
                0.15180742496120775,
                4.352431362546749,
                0.4264719546804394,
                -3.0937797029086864,
                -6.702472438220284,
                -0.6620221953127352,
                6.21071042539066,
                1.7906423714280193,
                6.270291747344257,
                4.0475943241553365,
                10.618127461179316,
                1.2951216460265242,
                -2.0163698042527796,
                -1.5196558146073285,
                -2.2153995960518196,
                -2.7022909534895088,
                -1.1201228676964146,
                0.36085111425925864,
                0.3277809097525487,
                0.23855906966196067,
                0.3679946007539825
            ],
            [
                -45.32963766167,
                6.929295813923938,
                1.2555019147116193,
                1.1570496859578439,
                -5.676985359389528,
                0.060696567676309446,
                -1.6973406445548558,
                -5.870175387272133,
                -1.2012963830013952,
                1.6456283160358895,
                0.09885458535433807,
                -0.4484785615495381,
                -0.9904572084136211,
                1.6958415321741411,
                3.5970370255353403,
                0.2789004754062172,
                2.998920517231535,
                -1.4024361361715887,
                -2.510868745592981,
                3.268113494549477,
                1.7944984011680893,
                0.029877205301706025,
                1.1567669429570182,
                0.44935940669158175,
                3.3753817681074127,
                4.334139198793674,
                5.596298541533104,
                3.0472520818243516,
                0.9714924730311051,
                1.350515929410404,
                -1.258108482511608,
                -3.0971393280706563,
                -2.501385176531016,
                -2.385038910248879,
                -2.792148562879845,
                -1.5732602803883353,
                -0.37939778324523454,
                -0.3942285656440068,
                -0.26492015671960195,
                -0.36992247934362427
            ],
            [
                -4.149738138663572,
                -4.859833348741778,
                -5.318111396202409,
                -0.3480575345447423,
                -2.055916123304661,
                4.681527338509099,
                3.82255682238154,
                0.6252232725344413,
                -2.655155427382872,
                2.0220801174749803,
                -1.384359715139182,
                -0.6385564285796899,
                -2.1587639036534143,
                -0.16931775636841148,
                3.1311939023846587,
                -0.6862045782415054,
                0.46146026136572443,
                0.914567623711656,
                -1.6390584187564905,
                5.094625252147608,
                6.0986775820111605,
                -2.1529918406104045,
                -0.9276239508726998,
                -0.3352684467052273,
                1.9222264686935064,
                -4.708501334649394,
                -0.9275887903508032,
                -2.4510627721697293,
                0.030126742088111724,
                -1.3119004433166779,
                -0.015343810625490919,
                -0.8613113443163505,
                -0.6721519773792479,
                -0.7687409027615223,
                -0.9176428588540247,
                -0.4499681626466196,
                -0.0033340015819541516,
                -0.0043736899553964235,
                -0.0036287387128678445,
                -0.004155850515531547
            ],
            [
                9.163587580848024,
                -1.3044201045102057,
                -1.4736546512633721,
                -0.3605837052942258,
                10.732635860815986,
                6.8230746821791755,
                -0.5286854033768669,
                -2.014687172749481,
                -0.7132526701988262,
                -1.8381849004578426,
                -1.7575193386963746,
                -0.5364286453632973,
                -0.6157096243238288,
                -0.04282133953717587,
                -0.4761183406920189,
                -0.5965136834724362,
                -0.5716022465386001,
                -0.6171726982879643,
                -0.664152165102345,
                -0.569544853430596,
                -0.49225359710382866,
                -0.6218715303929275,
                -0.5973684860325911,
                -0.6692140622743123,
                -0.5123451913504757,
                -1.0255543678118844,
                -0.3131794051415558,
                -0.7690142636294865,
                -0.34776952942749545,
                -0.3376745741449352,
                -0.005061817386009556,
                -0.17900408321589756,
                -0.13954109495357336,
                -0.158322588067927,
                -0.18892720890208464,
                -0.09298377985915623,
                -0.0011280564297280508,
                -0.001119431343400307,
                -0.0012423200385973138,
                -0.001448228148092447
            ],
            [
                2.250068468518145,
                1.3842628341768282,
                1.3287854122921197,
                0.003471642350474091,
                8.637767963952722,
                -6.1996233295681105,
                -0.13287960628132922,
                0.22592079875656396,
                17.531982718636595,
                -4.543411089381913,
                -5.161024911019331,
                1.1774350449057673,
                8.672908366133539,
                -5.986349720334783,
                -6.2447864636219546,
                1.9294852521971793,
                -2.404062642131496,
                7.689553793943604,
                10.755867383136557,
                -4.935140263761998,
                -9.08013883360346,
                6.075085131116794,
                6.90706966844595,
                10.993656120276212,
                -1.2092551855555536,
                -6.879325634195932,
                -4.158261640773056,
                -7.7444835796461575,
                -2.6395471134023722,
                -7.748338194371975,
                0.35290726954955765,
                -1.5357041089677663,
                -1.2223853873081232,
                -1.46010543208227,
                -1.8205963303383788,
                -0.8247430023242928,
                0.09836539294908497,
                0.1635040975269483,
                0.12116805029247112,
                0.1001823973516842
            ]
        ],
        "intercepts": [
            -1.933508022907508,
            0.6360109887469968,
            0.3964703752274172,
            -1.0159841980115125,
            4.384234031154499,
            -1.4711242402527847,
            -0.9960989339557009
        ]
    },
    "cipherAlgorithmModel": {
        "classes": [
            "ADFGVX Cipher",
            "AMSCO Cipher",
            "Affine Cipher",
            "Atbash Cipher",
            "Autokey Cipher",
            "Baconian Cipher",
            "Beaufort Cipher",
            "Bifid Cipher",
            "Caesar Cipher",
            "Gronsfeld Cipher",
            "Playfair Cipher",
            "Polybius Cipher",
            "Porta Cipher",
            "RailFence Cipher",
            "Vigen\u00e8re Cipher"
        ],
        "weights": [
            [
                5.462323897362243,
                -3.7331795693393683,
                -2.780836036095462,
                0.17078847297233654,
                7.964846982605506,
                -3.1989967458386355,
                -1.7059903364210676,
                8.712221435127766,
                -2.2248221140444433,
                7.01252872870036,
                6.391335523055734,
                -1.7578054392843456,
                -1.9494368314438573,
                -0.12387537806865928,
                -1.60647224473565,
                -1.9381815781845477,
                -1.9200851304812454,
                -1.9390961796370119,
                -2.116811000266981,
                -1.8708923169602587,
                -1.6294220402324624,
                -1.976995802082231,
                -1.9252683825599797,
                -2.1522919208856517,
                -1.6986374097271224,
                3.3074557220545224,
                -1.0368748148492928,
                2.578226233624721,
                -1.1757949482988874,
                -1.148326942471538,
                -0.014123295251177777,
                -0.2036058757773084,
                -0.1583155642863738,
                -0.1771317201085199,
                -0.20967042427567664,
                -0.10501074786480522,
                -0.0032256067732895754,
                -0.00309915824143232,
                -0.0030497762161901453,
                -0.00383423979700734
            ],
            [
                2.9652791518625286,
                -0.36702730971690845,
                0.5885548527273945,
                -0.27039219689097355,
                9.005797853686596,
                -4.734489494682562,
                -0.09523020267009444,
                0.6662590594973801,
                16.11018598005583,
                -4.217936125873202,
                -5.185391120501854,
                1.2875037810030945,
                7.2493190750004635,
                -5.515709996675444,
                -5.497685466508001,
                1.1311949244748527,
                -3.0990105954370097,
                6.191856348793301,
                9.539166119133947,
                -4.393573192571581,
                -7.720283445177464,
                4.792441340426655,
                5.570385236904476,
                10.391042658418957,
                -1.030978700047145,
                -6.77596321063611,
                -3.962516102450025,
                -7.19993254150424,
                -2.3210554718025067,
                -7.147491185548121,
                0.17347553363867188,
                -0.7507374457769895,
                -0.6465120418606342,
                -0.8271049518852023,
                -1.0451277394241607,
                -0.4257105081172458,
                0.05937264870972078,
                0.104678850583851,
                0.034066554141235515,
                0.12517521569177284
            ],
            [
                23.55278351810299,
                0.9098259107698882,
                0.6079231102559012,
                -0.7547125897232974,
                -8.609429292456118,
                3.1782656997766208,
                6.540014350247533,
                4.877578023179019,
                -4.23646247560421,
                -0.18845209808022126,
                -3.009589927398976,
                0.254369422173029,
                -2.6771552380820753,
                6.868059504916711,
                3.450685494873145,
                -3.900404893054073,
                -1.3140514523969928,
                -1.0437058738408143,
                -1.089012572985519,
                2.226899178865992,
                5.300602226511646,
                -3.432959812459323,
                -1.9343862266241714,
                -3.392727002253418,
                0.9516991182199488,
                -3.3469362059717627,
                -0.5017374182599359,
                4.140073208638713,
                3.3584007012127004,
                2.555381491700013,
                0.23331974847076328,
                -1.1354338765342016,
                -0.8794348467094,
                -1.215290711400596,
                -1.5712857035883803,
                -0.7541527018167539,
                0.11253875699587118,
                0.15025291888543518,
                -0.0007378663666203373,
                0.14429411710991513
            ],
            [
                3.569110059250597,
                -0.5348887564461884,
                0.6038958779146472,
                -0.4337422781809409,
                -10.921780727358456,
                -4.018307802965857,
                -7.955555307845096,
                -3.8971715092790404,
                -8.818237421879282,
                -1.552548786712978,
                11.558145732646421,
                6.575184540910279,
                5.377244319015717,
                -7.2201057471704395,
                -3.4904352208125147,
                10.227497010035535,
                8.068492407290861,
                -2.6644915175362254,
                1.558856748877628,
                -7.242895673653365,
                -7.707847335534063,
                8.743676572560279,
                0.9368835637566947,
                -5.462004516027372,
                -3.695483188494113,
                18.7996236303509,
                -0.3766394445167346,
                -0.6613415240943843,
                -4.601704898848022,
                12.856690895588622,
                0.1385155461849505,
                -1.1583427440164826,
                -0.8531377659403157,
                -0.9831470109917643,
                -1.1346051214086619,
                -0.5717121915474522,
                0.045616504777616876,
                -0.006022784066557849,
                0.02438658668249653,
                -0.005903604104391721
            ],
            [
                -16.149327953653426,
                4.044870368067192,
                0.5248211639352323,
                0.35788802544455195,
                0.9225704968820527,
                2.9312547416428933,
                2.3930937239845274,
                -5.47927059627113,
                2.261694959375346,
                1.7383209193617626,
                3.1567171361072615,
                2.419683247818257,
                2.531912824127051,
                -4.5525585657625225,
                2.399688039756752,
                1.3722855823180287,
                2.63208044293645,
                -8.185074707590687,
                -7.29683377402266,
                -1.4437692352420826,
                -2.644031407548569,
                -1.0281408444383253,
                3.270193738587336,
                -1.3893924732793916,
                -6.0354386664676385,
                3.6711124691266392,
                5.541522654121614,
                1.966998761897346,
                0.6395817244254608,
                1.6535326765792953,
                -0.04721605679308433,
                -0.6851288846248443,
                -0.6265049174407958,
                -0.6754015877500489,
                -0.5837850700957433,
                -0.34532067340375,
                -0.11568566613436881,
                -0.18267549475668338,
                -0.0747449784943404,
                -0.1486685848196218
            ],
            [
                9.716914814592654,
                -2.774323024547924,
                -1.8950281846900383,
                -0.018933324816403835,
                11.354382582486538,
                7.265346226116785,
                -0.5497544450480751,
                -2.112176355244583,
                -0.7939952709617804,
                -1.9281171187978845,
                -1.8359655110240924,
                -0.5636511821495359,
                -0.6599680568450585,
                -0.08771693600669764,
                -0.4920135449081829,
                -0.6198374501487579,
                -0.5865776307641966,
                -0.6570664173009272,
                -0.7022765614244875,
                -0.5842830275810434,
                -0.4924592432451318,
                -0.6549616838522136,
                -0.6363749761994404,
                -0.7300761229424768,
                -0.5371578482245141,
                -1.0855247078972743,
                -0.35460010069917197,
                -0.8429290123212094,
                -0.38424520347331487,
                -0.34707612302338786,
                -0.008871438270186618,
                -0.10470972522736681,
                -0.08144958954317362,
                -0.09027776123254841,
                -0.10657101705467587,
                -0.05389117195656794,
                -0.0020755750997986894,
                -0.0019996646443561435,
                -0.0021532089707447756,
                -0.0025901002869247627
            ],
            [
                -13.021823277634843,
                4.123033717389788,
                0.47227725577905266,
                0.3289538112037447,
                15.909385184617204,
                3.592635419855883,
                -0.7367084861162551,
                3.040686655727535,
                -2.7990988284326224,
                -7.4189654293839595,
                -0.5642882567635336,
                1.3480941841747702,
                -6.181762156717913,
                3.9132341314396055,
                2.5034769469332256,
                0.951009279044321,
                0.010158511418443872,
                3.49582792847529,
                -4.204120495728489,
                3.1755578904765587,
                4.688692352623572,
                -6.425507959984047,
                -6.774697698554685,
                -6.630711314747562,
                1.2174582360785837,
                -9.324562241663353,
                1.384872320543945,
                1.6314816053298973,
                3.1212068710971037,
                3.353250580398592,
                -0.17305799402610242,
                -0.4039520166426835,
                -0.42512941725714404,
                -0.4997272727315076,
                -0.577658312735605,
                -0.27730787003383184,
                0.04944222987126245,
                0.009304092615358993,
                0.026656358552103097,
                -0.0077525393500035514
            ],
            [
                -1.3374096145569196,
                -4.0313398565427425,
                2.436356100966105,
                0.22299260428597667,
                -1.1502416653802885,
                -0.7915422372792885,
                -0.7069912139257183,
                -0.8276922537992071,
                -1.2478589493685275,
                -0.8728100537877176,
                -0.9566096485651704,
                -0.9288906799812298,
                -1.1087715924284847,
                -0.12619394456359143,
                -0.7468599124984499,
                -1.002807551803437,
                -1.026415780303239,
                -0.9444733041027852,
                -1.128072570214269,
                -0.7392080030413282,
                -0.5710338233952128,
                -1.0659439613718513,
                -0.9993833314470546,
                -1.1449887515454837,
                -0.7541031284793791,
                -0.8263146387977056,
                -0.650067995204251,
                -0.8048736919008056,
                -0.6487197533840171,
                -0.6981637560277023,
                -0.29782532275016926,
                9.453892003252168,
                16.18987585492113,
                -3.319346319749954,
                -6.134581354071091,
                6.930301154638512,
                -0.05972328861604008,
                -0.07977018295769485,
                -0.07432076449659415,
                -0.07154021692016112
            ],
            [
                23.15338775321187,
                0.8850843595996454,
                0.6438177325910542,
                -0.04573075378209571,
                -7.189729175513911,
                1.2876451645914724,
                5.2029245262350905,
                1.9299390959358318,
                -6.521463491965518,
                -2.987172044148681,
                -0.5736624278876129,
                0.5281097596140569,
                -3.479337160516405,
                7.278042816566211,
                4.844983716645482,
                -1.5728077510988807,
                -1.0721670099544687,
                -2.9479953699747545,
                -3.272126809320619,
                2.680513708530178,
                7.7472011335966835,
                -4.224869617921131,
                -6.35930553542341,
                -5.300060229940583,
                -0.1635438866271313,
                -1.5134057675173862,
                1.9982968962687677,
                6.892058125589407,
                7.800947505788325,
                3.7687325287126763,
                0.5491368231886907,
                -1.3093404334678787,
                -0.9942983423892685,
                -1.2634594539998465,
                -1.4746564705088367,
                -0.5794190515727817,
                0.060322366137338206,
                0.0729087520330927,
                0.045121056557198884,
                0.04793154166673697
            ],
            [
                -13.375579998862042,
                4.020960980165294,
                0.5147096762275999,
                -0.10123468138991883,
                -15.866245243611198,
                -6.732894796532356,
                -8.033974900055695,
                -3.084383517120226,
                -1.5984676804209517,
                8.895656100150562,
                2.4823273955423693,
                2.73524093573121,
                5.456310091194252,
                8.935329127184684,
                0.8306110765373669,
                -4.8648011480709545,
                -5.068269005156172,
                -2.134192213114281,
                7.6925746451223995,
                7.733703075830854,
                4.752787784128063,
                -2.38825564021768,
                4.414894283232879,
                9.583909990540398,
                13.415829204556877,
                3.2259960394358207,
                -2.2327968447246884,
                -4.0583756176336685,
                -7.475149326770811,
                -13.632390630191804,
                -0.35101147449748643,
                -0.5720294144285556,
                -0.3371230897201043,
                -0.4896576463288254,
                -0.6623104108555828,
                -0.1533625893045185,
                -0.1356414247458965,
                -0.02873644425155577,
                -0.1416157393078754,
                -0.10184617207452876
            ],
            [
                -4.342200349086075,
                -6.779717542138694,
                -5.661417978934053,
                -0.3008574334128707,
                -2.6951569556889154,
                4.6680825332696045,
                3.4511465424383987,
                0.3171063698548258,
                -3.7458376875564783,
                1.9191128568615492,
                -0.8168620961409974,
                -0.47518836051365093,
                -1.8974867380709157,
                -0.22997184560823625,
                2.801899939874565,
                -0.11157254068346664,
                0.7410407321384502,
                0.6069372702394165,
                -1.9477055370637866,
                4.87077503109762,
                5.9589848491041195,
                -1.7313122917135788,
                -0.9602164147642321,
                -0.8308672635524966,
                1.7219700197088863,
                -3.500590930065474,
                -0.9629855166535303,
                -2.847730049248958,
                -0.49719994309071924,
                -0.5731436592473033,
                -0.027730327506233284,
                -0.5460887004208884,
                -0.42591744993678377,
                -0.48017806002737773,
                -0.5693388041384861,
                -0.28373967098224595,
                -0.006388594371006037,
                -0.007581673953905992,
                -0.006537595051719285,
                -0.00764485398840772
            ],
            [
                -0.9433155620678851,
                -3.888413698807003,
                2.268662435731933,
                0.0873622987632825,
                -0.8133740541891326,
                -0.5565664479557145,
                -0.49395570644097114,
                -0.579819725581816,
                -0.8822714061095707,
                -0.6127613924003595,
                -0.6815742438677063,
                -0.6556871276431239,
                -0.7745109066919322,
                -0.12138247523063148,
                -0.5160015735712803,
                -0.7088515328091264,
                -0.691146386339817,
                -0.6639330262110958,
                -0.775546161076983,
                -0.5169339630990778,
                -0.40442633394065086,
                -0.7516179642850828,
                -0.7021640463612709,
                -0.8013584641829835,
                -0.5331862823827119,
                -0.5993840772551083,
                -0.45652974562015697,
                -0.5393883355588073,
                -0.4547429260300422,
                -0.4852376050408362,
                -0.11713239797475486,
                -0.3880342171544824,
                -9.081839920247267,
                11.566341383097066,
                16.073446245722558,
                -2.1532166717215864,
                -0.026301318797554596,
                -0.033437366495156974,
                -0.02867817246043658,
                -0.0305026342228201
            ],
            [
                -11.641301947943049,
                4.612756023474275,
                0.5081815262039172,
                0.23470218109476682,
                -3.8503822886220065,
                0.869723385857106,
                -2.5172680524865045,
                -1.1654954326365887,
                -4.482188283312367,
                1.7726448799007035,
                -8.205304686296431,
                -9.643169006883083,
                -13.906647650678769,
                1.687924971036316,
                1.7228767952475572,
                -0.672796988517404,
                2.8590895455292893,
                9.540950819692377,
                -0.008306690572872635,
                0.022855350826231934,
                1.635445039227401,
                6.145171918515349,
                -2.213145898299278,
                -0.44346285455720547,
                3.413211263299696,
                2.7400709133014383,
                1.8193062661509938,
                7.058046514389288,
                3.630065161600594,
                4.345377905267391,
                -0.16940069081374803,
                -0.46472191505212346,
                -0.5961195817768757,
                -0.3169246001908176,
                -0.484905343422453,
                -0.45200441010609393,
                0.07640943166251529,
                -0.06868888400921044,
                0.04558651719936344,
                0.10292975378118857
            ],
            [
                3.3124630165398594,
                -0.2777749843311229,
                0.6453054286255384,
                0.20674249652851764,
                8.423338309945171,
                -5.246081115554052,
                0.04286060191435059,
                0.7642626961696494,
                15.77057598367086,
                -4.0500156344382905,
                -4.335449736836351,
                0.5631605395481565,
                7.5905691427869035,
                -5.727152611969271,
                -5.97958565424981,
                1.3953598146898814,
                -2.267677715132056,
                7.897775846493299,
                9.711257199904232,
                -3.772280159035232,
                -7.8507822618546195,
                5.2653583091304945,
                6.240610083587754,
                9.170187055745185,
                -1.635418942261668,
                -6.7617085495165625,
                -4.574748610772008,
                -7.460773531351781,
                -2.9611707619930403,
                -7.1658125415411575,
                0.14748547832275827,
                -0.9256085786040582,
                -0.6811010809452942,
                -0.7435001005091186,
                -0.9106903578967355,
                -0.4737841753600912,
                0.03382358905208674,
                0.05833800381215688,
                0.08565351418929433,
                -0.029399174220189245
            ],
            [
                -10.921303507118441,
                3.7901333824036936,
                0.5227770387612322,
                0.3161733679033355,
                -2.4839820074028727,
                1.4859254696979818,
                5.165388906189352,
                -3.1620439455598235,
                3.208246686554576,
                2.490515198648475,
                2.5761718679304586,
                -1.6869546145177057,
                4.429720879351546,
                -4.977923050088088,
                -0.22516839258419233,
                0.3147148238076359,
                2.734539066651667,
                -6.553319604385605,
                -5.961042540361739,
                -0.14646866444319612,
                -1.0634274942636677,
                -1.2660825623072192,
                2.0719756041643915,
                -0.8671987907899449,
                -4.6362197891527765,
                1.9901315550510514,
                4.365498456664263,
                0.14845985414403892,
                1.969581269567162,
                2.664676364845694,
                -0.03556413192289988,
                -0.806158175524424,
                -0.4029922468673604,
                -0.485194186190601,
                -0.6082601162466706,
                -0.30166872085080815,
                -0.08848405266845767,
                0.01652903544665923,
                0.07036751404283038,
                -0.010648508465566047
            ]
        ],
        "intercepts": [
            0.7012941633089449,
            0.13099646875151488,
            1.4185748971503978,
            0.5435312691617477,
            -1.2038978681841552,
            -0.5991068842816781,
            -1.1277417143589297,
            -0.8451303420426339,
            0.7136610921571159,
            -1.1338504534634983,
            5.614421174284103,
            -1.1401043836893445,
            -1.5391921705680132,
            -0.49089842047776916,
            -1.0425568277393535
        ]
    }
}